digraph Tree {
0 [label="words_GINSBURG <= -0.1650\ngini = 0.436153804836\nsamples = 361", shape="box"] ;
1 [label="words_ROBERTS <= 0.1750\ngini = 0.49326943622\nsamples = 181", shape="box"] ;
0 -> 1 ;
2 [label="words_BREYER <= -0.3600\ngini = 0.49660899654\nsamples = 85", shape="box"] ;
1 -> 2 ;
3 [label="gini = 0.0000\nsamples = 12\nvalue = [ 12.   0.]", shape="box"] ;
2 -> 3 ;
4 [label="words_GINSBURG <= -0.1950\ngini = 0.497654344155\nsamples = 73", shape="box"] ;
2 -> 4 ;
5 [label="words_GINSBURG <= -0.2250\ngini = 0.493469387755\nsamples = 70", shape="box"] ;
4 -> 5 ;
6 [label="words_SCALIA <= 0.4600\ngini = 0.498163452709\nsamples = 66", shape="box"] ;
5 -> 6 ;
7 [label="(...)", shape="box"] ;
6 -> 7 ;
38 [label="(...)", shape="box"] ;
6 -> 38 ;
45 [label="gini = 0.0000\nsamples = 4\nvalue = [ 0.  4.]", shape="box"] ;
5 -> 45 ;
46 [label="gini = 0.0000\nsamples = 3\nvalue = [ 3.  0.]", shape="box"] ;
4 -> 46 ;
47 [label="words_ROBERTS <= 0.2650\ngini = 0.457465277778\nsamples = 96", shape="box"] ;
1 -> 47 ;
48 [label="gini = 0.0000\nsamples = 11\nvalue = [  0.  11.]", shape="box"] ;
47 -> 48 ;
49 [label="words_ROBERTS <= 0.7950\ngini = 0.48\nsamples = 85", shape="box"] ;
47 -> 49 ;
50 [label="words_ROBERTS <= 0.7050\ngini = 0.458622630888\nsamples = 73", shape="box"] ;
49 -> 50 ;
51 [label="words_BREYER <= 0.9350\ngini = 0.47871000252\nsamples = 63", shape="box"] ;
50 -> 51 ;
52 [label="(...)", shape="box"] ;
51 -> 52 ;
87 [label="(...)", shape="box"] ;
51 -> 87 ;
92 [label="words_GINSBURG <= -0.9550\ngini = 0.18\nsamples = 10", shape="box"] ;
50 -> 92 ;
93 [label="(...)", shape="box"] ;
92 -> 93 ;
94 [label="(...)", shape="box"] ;
92 -> 94 ;
95 [label="words_ROBERTS <= 0.8650\ngini = 0.444444444444\nsamples = 12", shape="box"] ;
49 -> 95 ;
96 [label="words_ROBERTS <= 0.8450\ngini = 0.32\nsamples = 10", shape="box"] ;
95 -> 96 ;
97 [label="(...)", shape="box"] ;
96 -> 97 ;
98 [label="(...)", shape="box"] ;
96 -> 98 ;
101 [label="gini = 0.0000\nsamples = 2\nvalue = [ 0.  2.]", shape="box"] ;
95 -> 101 ;
102 [label="words_SCALIA <= -0.4750\ngini = 0.32\nsamples = 180", shape="box"] ;
0 -> 102 ;
103 [label="words_GINSBURG <= -0.0750\ngini = 0.5\nsamples = 42", shape="box"] ;
102 -> 103 ;
104 [label="gini = 0.0000\nsamples = 4\nvalue = [ 4.  0.]", shape="box"] ;
103 -> 104 ;
105 [label="words_BREYER <= -0.3050\ngini = 0.494459833795\nsamples = 38", shape="box"] ;
103 -> 105 ;
106 [label="gini = 0.0000\nsamples = 4\nvalue = [ 4.  0.]", shape="box"] ;
105 -> 106 ;
107 [label="words_ROBERTS <= -0.5350\ngini = 0.4723183391\nsamples = 34", shape="box"] ;
105 -> 107 ;
108 [label="words_ROBERTS <= -0.7650\ngini = 0.444444444444\nsamples = 12", shape="box"] ;
107 -> 108 ;
109 [label="(...)", shape="box"] ;
108 -> 109 ;
110 [label="(...)", shape="box"] ;
108 -> 110 ;
117 [label="words_GINSBURG <= 0.3150\ngini = 0.351239669421\nsamples = 22", shape="box"] ;
107 -> 117 ;
118 [label="(...)", shape="box"] ;
117 -> 118 ;
127 [label="(...)", shape="box"] ;
117 -> 127 ;
128 [label="words_ROBERTS <= 0.8300\ngini = 0.193761814745\nsamples = 138", shape="box"] ;
102 -> 128 ;
129 [label="words_ROBERTS <= -0.8000\ngini = 0.183494059353\nsamples = 137", shape="box"] ;
128 -> 129 ;
130 [label="words_KENNEDY <= -0.0050\ngini = 0.426035502959\nsamples = 13", shape="box"] ;
129 -> 130 ;
131 [label="gini = 0.0000\nsamples = 7\nvalue = [ 0.  7.]", shape="box"] ;
130 -> 131 ;
132 [label="words_GINSBURG <= 0.1050\ngini = 0.444444444444\nsamples = 6", shape="box"] ;
130 -> 132 ;
133 [label="(...)", shape="box"] ;
132 -> 133 ;
136 [label="(...)", shape="box"] ;
132 -> 136 ;
137 [label="words_SCALIA <= 0.0400\ngini = 0.148283038502\nsamples = 124", shape="box"] ;
129 -> 137 ;
138 [label="words_BREYER <= -0.2200\ngini = 0.27257977285\nsamples = 43", shape="box"] ;
137 -> 138 ;
139 [label="(...)", shape="box"] ;
138 -> 139 ;
142 [label="(...)", shape="box"] ;
138 -> 142 ;
153 [label="words_SCALIA <= 0.5550\ngini = 0.0713305898491\nsamples = 81", shape="box"] ;
137 -> 153 ;
154 [label="(...)", shape="box"] ;
153 -> 154 ;
155 [label="(...)", shape="box"] ;
153 -> 155 ;
162 [label="gini = 0.0000\nsamples = 1\nvalue = [ 1.  0.]", shape="box"] ;
128 -> 162 ;
}